<?xml version="1.0"?>
<opencv_storage>
<opencv_ml_knn>
  <format>3</format>
  <is_classifier>1</is_classifier>
  <default_k>10</default_k>
  <samples type_id="opencv-matrix">
    <rows>100</rows>
    <cols>100</cols>
    <dt>f</dt>
    <data>
      0. 0. 0. 0. 0. 0. 0. 0. 0. 0. 0. 0. 0. 1. 23. 76. 76. 0. 1. 0. 0.
      0. 0. 241. 91. 1. 13. 191. 140. 1. 0. 1. 126. 254. 1. 0. 1. 0.
      254. 0. 0. 0. 255. 25. 0. 1. 1. 0. 228. 161. 0. 25. 254. 0. 0. 0.
      0. 1. 229. 178. 0. 1. 254. 25. 0. 0. 0. 1. 229. 178. 0. 1. 255.
      140. 1. 0. 0. 0. 255. 1. 0. 1. 38. 254. 179. 0. 2. 217. 28. 1. 0.
      0. 0. 0. 28. 253. 26. 0. 3. 0. 0. 0. 0. 0. 0. 0. 0. 0. 0. 0. 0. 0.
      0. 1. 23. 76. 76. 1. 1. 0. 0. 0. 1. 241. 90. 0. 13. 191. 140. 1.
      0. 0. 126. 254. 1. 0. 0. 0. 254. 0. 0. 0. 253. 27. 1. 1. 0. 0.
      228. 161. 0. 25. 254. 0. 0. 0. 0. 0. 229. 176. 0. 1. 254. 25. 0.
      0. 0. 0. 228. 125. 0. 0. 192. 140. 0. 0. 0. 1. 255. 1. 0. 1. 0.
      254. 232. 1. 1. 215. 25. 0. 0. 1. 0. 1. 26. 254. 26. 1. 1. 0. 0.
      0. 0. 0. 0. 0. 0. 0. 0. 0. 0. 0. 0. 1. 23. 76. 76. 0. 1. 0. 0. 0.
      0. 242. 90. 0. 14. 191. 140. 1. 0. 1. 126. 255. 0. 1. 0. 0. 254.
      0. 0. 0. 255. 25. 0. 2. 0. 0. 228. 161. 0. 26. 253. 0. 0. 0. 0. 0.
      205. 177. 0. 0. 254. 25. 0. 0. 0. 1. 229. 179. 0. 1. 191. 140. 0.
      0. 0. 1. 242. 0. 0. 1. 38. 254. 232. 1. 1. 215. 97. 0. 0. 2. 0. 1.
      26. 254. 26. 0. 1. 1. 0. 0. 0. 0. 0. 0. 0. 0. 0. 0. 0. 0. 0. 1.
      23. 76. 76. 1. 1. 0. 0. 0. 0. 241. 90. 1. 13. 191. 140. 1. 0. 1.
      126. 254. 2. 0. 1. 0. 254. 0. 0. 0. 255. 25. 0. 0. 1. 0. 228. 161.
      0. 23. 254. 0. 0. 1. 0. 0. 23. 178. 0. 0. 254. 26. 1. 0. 0. 1.
      228. 178. 0. 2. 254. 255. 0. 0. 1. 1. 255. 0. 0. 1. 2. 254. 232.
      1. 1. 216. 26. 0. 0. 1. 0. 1. 26. 254. 26. 0. 2. 1. 0. 0. 0. 0. 0.
      0. 0. 0. 0. 0. 0. 0. 0. 1. 23. 76. 76. 1. 1. 0. 0. 0. 1. 242. 179.
      1. 14. 191. 140. 1. 0. 0. 126. 253. 1. 0. 1. 0. 254. 0. 0. 0. 253.
      27. 0. 0. 1. 0. 228. 161. 0. 27. 254. 0. 0. 0. 0. 2. 229. 177. 0.
      18. 254. 25. 0. 0. 0. 1. 230. 179. 0. 1. 191. 140. 0. 0. 1. 1.
      255. 0. 0. 1. 0. 254. 232. 1. 1. 215. 94. 0. 0. 1. 0. 1. 26. 254.
      26. 0. 3. 0. 0. 0. 0. 0. 0. 0. 0. 0. 0. 0. 0. 0. 0. 1. 23. 76. 76.
      0. 1. 0. 0. 0. 0. 241. 91. 1. 13. 191. 140. 1. 0. 1. 126. 254. 1.
      0. 1. 0. 254. 0. 0. 0. 255. 25. 0. 1. 1. 0. 228. 161. 0. 25. 254.
      0. 0. 0. 0. 0. 204. 178. 0. 19. 253. 25. 0. 0. 0. 1. 229. 126. 0.
      0. 191. 140. 0. 0. 0. 0. 255. 1. 0. 1. 0. 254. 232. 1. 1. 215. 25.
      0. 0. 1. 0. 1. 26. 254. 26. 1. 0. 0. 0. 0. 0. 0. 0. 0. 0. 0. 0. 0.
      0. 0. 0. 1. 23. 76. 76. 0. 1. 0. 0. 0. 0. 241. 90. 0. 14. 191.
      140. 1. 0. 1. 127. 255. 0. 1. 0. 0. 254. 0. 0. 1. 254. 25. 0. 2.
      0. 0. 228. 161. 0. 26. 252. 0. 0. 0. 0. 1. 206. 178. 0. 1. 254.
      25. 0. 0. 0. 1. 228. 124. 0. 0. 192. 140. 0. 0. 0. 1. 255. 0. 0.
      1. 0. 254. 232. 1. 1. 215. 25. 0. 0. 1. 0. 1. 26. 254. 26. 1. 1.
      0. 0. 0. 0. 0. 0. 0. 0. 0. 0. 0. 0. 0. 0. 1. 23. 76. 76. 0. 1. 0.
      0. 0. 0. 240. 91. 1. 13. 191. 140. 1. 0. 1. 127. 254. 1. 0. 1. 0.
      254. 0. 0. 0. 255. 25. 0. 1. 1. 0. 228. 161. 0. 23. 255. 0. 0. 0.
      0. 0. 205. 177. 0. 20. 254. 25. 0. 0. 0. 1. 229. 179. 0. 0. 191.
      140. 0. 1. 1. 1. 242. 0. 0. 1. 0. 255. 231. 2. 0. 216. 94. 0. 0.
      1. 0. 1. 95. 254. 25. 1. 0. 1. 0. 0. 0. 0. 0. 0. 0. 0. 0. 0. 0. 0.
      0. 1. 23. 76. 76. 1. 1. 0. 0. 0. 0. 241. 90. 0. 14. 191. 140. 1.
      0. 0. 128. 255. 0. 1. 0. 0. 254. 0. 0. 0. 255. 25. 0. 2. 0. 0.
      228. 161. 0. 26. 253. 0. 0. 0. 0. 2. 206. 178. 0. 0. 254. 25. 0.
      0. 0. 1. 229. 125. 0. 2. 255. 140. 0. 0. 0. 1. 242. 0. 0. 1. 2.
      254. 232. 1. 1. 215. 96. 0. 0. 1. 0. 1. 26. 254. 26. 0. 1. 1. 0.
      0. 0. 0. 0. 0. 0. 0. 0. 0. 0. 0. 0. 1. 23. 76. 76. 0. 1. 0. 0. 0.
      0. 241. 91. 1. 13. 191. 140. 1. 0. 1. 126. 254. 1. 0. 1. 0. 254.
      0. 0. 0. 255. 25. 0. 1. 1. 0. 228. 161. 0. 25. 254. 0. 0. 1. 0. 1.
      204. 178. 0. 1. 254. 26. 1. 0. 0. 2. 229. 177. 0. 1. 255. 255. 1.
      0. 0. 2. 242. 1. 0. 1. 2. 255. 179. 1. 2. 215. 96. 0. 0. 1. 0. 0.
      27. 253. 26. 0. 1. 1. 0. 0. 0. 0. 0. 0. 0. 0. 0. 0. 0. 0. 0. 1.
      23. 76. 76. 0. 1. 0. 0. 0. 0. 241. 91. 1. 13. 191. 140. 1. 0. 1.
      126. 254. 1. 0. 1. 0. 254. 0. 0. 0. 255. 25. 0. 1. 1. 0. 228. 161.
      0. 25. 254. 0. 0. 1. 0. 1. 204. 178. 0. 1. 254. 26. 1. 0. 0. 2.
      229. 177. 0. 1. 255. 255. 1. 0. 0. 2. 242. 1. 0. 1. 2. 255. 179.
      1. 2. 215. 96. 0. 0. 1. 0. 0. 27. 253. 26. 0. 1. 1. 0. 0. 0. 0. 0.
      0. 0. 0. 0. 0. 0. 0. 0. 1. 23. 76. 76. 0. 1. 0. 0. 0. 0. 241. 91.
      1. 13. 191. 140. 1. 0. 1. 126. 254. 1. 0. 1. 0. 254. 0. 0. 0. 255.
      25. 0. 1. 1. 0. 228. 161. 0. 25. 254. 0. 0. 1. 0. 1. 204. 178. 0.
      1. 254. 26. 1. 0. 0. 2. 229. 177. 0. 1. 255. 255. 1. 0. 0. 2. 242.
      1. 0. 1. 2. 255. 179. 1. 2. 215. 96. 0. 0. 1. 0. 0. 27. 253. 26.
      0. 1. 1. 0. 0. 0. 0. 0. 0. 0. 0. 0. 0. 0. 0. 0. 1. 23. 76. 76. 0.
      1. 0. 0. 0. 0. 241. 91. 1. 13. 191. 140. 1. 0. 1. 126. 254. 1. 0.
      1. 0. 254. 0. 0. 0. 255. 25. 0. 1. 1. 0. 228. 161. 0. 25. 254. 0.
      0. 1. 0. 1. 204. 178. 0. 1. 254. 26. 1. 0. 0. 2. 229. 177. 0. 1.
      255. 255. 1. 0. 0. 2. 242. 1. 0. 1. 2. 255. 179. 1. 2. 215. 96. 0.
      0. 1. 0. 0. 27. 253. 26. 0. 1. 1. 0. 0. 0. 0. 0. 0. 0. 0. 0. 0. 0.
      0. 0. 1. 23. 76. 76. 0. 1. 0. 0. 0. 0. 241. 91. 1. 13. 191. 140.
      1. 0. 1. 126. 254. 1. 0. 1. 0. 254. 0. 0. 0. 255. 25. 0. 1. 1. 0.
      228. 161. 0. 25. 254. 0. 0. 1. 0. 1. 204. 178. 0. 1. 254. 26. 1.
      0. 0. 2. 229. 177. 0. 1. 255. 255. 1. 0. 0. 2. 242. 1. 0. 1. 2.
      255. 179. 1. 2. 215. 96. 0. 0. 1. 0. 0. 27. 253. 26. 0. 1. 1. 0.
      0. 0. 0. 0. 0. 0. 0. 0. 0. 0. 0. 0. 1. 23. 76. 76. 0. 1. 0. 0. 0.
      0. 241. 91. 1. 13. 191. 140. 1. 0. 1. 126. 254. 1. 0. 1. 0. 254.
      0. 0. 0. 255. 25. 0. 1. 1. 0. 228. 161. 0. 25. 254. 0. 0. 1. 0. 1.
      204. 178. 0. 1. 254. 26. 1. 0. 0. 2. 229. 177. 0. 1. 255. 255. 1.
      0. 0. 2. 242. 1. 0. 1. 2. 255. 179. 1. 2. 215. 96. 0. 0. 1. 0. 0.
      27. 253. 26. 0. 1. 1. 0. 0. 0. 0. 0. 0. 0. 0. 0. 0. 0. 0. 127.
      254. 255. 255. 254. 255. 179. 0. 0. 0. 0. 1. 1. 1. 178. 255. 179.
      0. 0. 0. 0. 0. 0. 0. 179. 255. 179. 0. 0. 0. 0. 1. 0. 0. 178. 255.
      178. 0. 0. 0. 0. 1. 3. 0. 176. 253. 178. 0. 0. 0. 0. 0. 1. 0. 177.
      253. 179. 0. 0. 0. 1. 1. 0. 1. 179. 255. 178. 0. 0. 0. 0. 1. 2. 0.
      178. 253. 177. 0. 0. 0. 0. 1. 3. 0. 18. 26. 18. 0. 0. 0. 0. 0. 0.
      0. 0. 0. 0. 0. 0. 0. 127. 254. 255. 255. 254. 255. 179. 0. 0. 0.
      0. 1. 1. 1. 178. 255. 179. 0. 0. 0. 0. 0. 0. 0. 179. 255. 179. 0.
      0. 0. 0. 1. 0. 0. 178. 255. 178. 0. 0. 0. 0. 1. 3. 0. 176. 253.
      178. 0. 0. 0. 0. 0. 1. 0. 177. 253. 179. 0. 0. 0. 1. 1. 0. 1. 179.
      255. 178. 0. 0. 0. 0. 1. 2. 0. 178. 253. 177. 0. 0. 0. 0. 1. 3. 0.
      18. 26. 18. 0. 0. 0. 0. 0. 0. 0. 0. 0. 0. 0. 0. 0. 127. 254. 255.
      255. 254. 255. 179. 0. 0. 0. 0. 1. 1. 1. 178. 255. 179. 0. 0. 0.
      0. 0. 0. 0. 179. 255. 179. 0. 0. 0. 0. 1. 0. 0. 178. 255. 178. 0.
      0. 0. 0. 1. 3. 0. 176. 253. 178. 0. 0. 0. 0. 0. 1. 0. 177. 253.
      179. 0. 0. 0. 1. 1. 0. 1. 179. 255. 178. 0. 0. 0. 0. 1. 2. 0. 178.
      253. 177. 0. 0. 0. 0. 1. 3. 0. 18. 26. 18. 0. 0. 0. 0. 0. 0. 0. 0.
      0. 0. 0. 0. 0. 127. 254. 254. 255. 254. 254. 179. 0. 0. 0. 1. 1.
      0. 0. 178. 255. 179. 0. 0. 0. 0. 0. 0. 0. 179. 255. 179. 0. 0. 0.
      0. 1. 0. 0. 178. 255. 178. 0. 0. 0. 0. 1. 2. 0. 178. 255. 178. 0.
      0. 0. 0. 0. 1. 0. 178. 254. 178. 0. 0. 0. 0. 0. 0. 0. 178. 255.
      179. 0. 0. 0. 0. 1. 2. 0. 178. 253. 177. 0. 0. 0. 0. 1. 3. 0. 18.
      26. 18. 0. 0. 0. 0. 0. 0. 0. 0. 0. 0. 0. 0. 0. 127. 254. 254. 255.
      254. 254. 179. 0. 0. 0. 1. 1. 0. 0. 178. 255. 179. 0. 0. 0. 0. 0.
      0. 0. 179. 255. 179. 0. 0. 0. 0. 1. 0. 0. 178. 255. 178. 0. 0. 0.
      0. 1. 2. 0. 178. 255. 178. 0. 0. 0. 0. 0. 1. 0. 178. 254. 178. 0.
      0. 0. 0. 0. 0. 0. 178. 255. 179. 0. 0. 0. 0. 1. 2. 0. 178. 253.
      177. 0. 0. 0. 0. 1. 3. 0. 18. 26. 18. 0. 0. 0. 0. 0. 0. 0. 0. 0.
      0. 0. 0. 1. 166. 254. 254. 253. 235. 40. 0. 0. 0. 254. 254. 0. 1.
      0. 140. 128. 0. 2. 0. 76. 38. 2. 0. 0. 26. 216. 2. 1. 0. 1. 0. 0.
      1. 0. 26. 253. 0. 0. 0. 2. 1. 0. 1. 186. 207. 0. 0. 2. 0. 1. 1. 0.
      254. 200. 1. 0. 0. 0. 0. 1. 64. 241. 216. 0. 0. 1. 0. 0. 0. 186.
      255. 255. 178. 179. 178. 91. 1. 0. 0. 25. 27. 26. 26. 27. 26. 0.
      0. 0. 0. 0. 0. 0. 0. 0. 0. 0. 0. 0. 0. 1. 166. 254. 254. 254. 236.
      40. 0. 0. 0. 254. 254. 0. 0. 0. 140. 127. 0. 2. 0. 76. 39. 2. 0.
      0. 26. 216. 1. 1. 0. 0. 0. 0. 1. 0. 26. 253. 0. 1. 0. 2. 1. 0. 1.
      185. 207. 0. 0. 2. 0. 1. 1. 0. 255. 200. 0. 0. 0. 0. 0. 1. 63.
      254. 216. 0. 0. 1. 0. 0. 0. 186. 255. 254. 178. 178. 178. 91. 1.
      0. 0. 26. 26. 25. 26. 26. 26. 0. 0. 0. 0. 0. 0. 0. 0. 0. 0. 0. 0.
      0. 0. 8. 166. 254. 255. 254. 236. 40. 0. 0. 0. 255. 255. 0. 0. 0.
      140. 127. 0. 2. 0. 77. 38. 2. 0. 0. 26. 216. 1. 1. 0. 0. 0. 0. 1.
      0. 26. 253. 0. 1. 0. 2. 1. 0. 1. 186. 207. 0. 0. 2. 0. 1. 1. 0.
      254. 200. 0. 0. 0. 0. 0. 1. 0. 254. 216. 0. 0. 1. 0. 0. 0. 186.
      255. 255. 178. 179. 178. 90. 1. 0. 0. 27. 27. 26. 26. 27. 26. 0.
      0. 0. 0. 0. 0. 0. 0. 0. 0. 0. 0. 0. 0. 1. 165. 254. 254. 253. 234.
      40. 0. 0. 0. 254. 255. 13. 1. 1. 140. 128. 0. 2. 0. 76. 39. 0. 0.
      1. 26. 216. 1. 0. 0. 0. 0. 0. 0. 3. 232. 252. 1. 1. 0. 2. 1. 0. 1.
      186. 207. 0. 0. 2. 0. 1. 1. 0. 254. 200. 1. 0. 0. 0. 0. 1. 64.
      241. 215. 0. 0. 1. 0. 0. 0. 186. 255. 255. 178. 179. 178. 91. 1.
      0. 0. 25. 27. 26. 26. 25. 26. 0. 0. 0. 0. 0. 0. 0. 0. 0. 0. 0. 0.
      0. 0. 8. 165. 252. 255. 253. 237. 40. 0. 0. 0. 255. 254. 13. 0. 0.
      140. 128. 0. 2. 0. 76. 39. 2. 0. 0. 26. 217. 2. 1. 0. 1. 0. 0. 1.
      0. 26. 254. 0. 1. 0. 0. 0. 0. 0. 186. 229. 0. 0. 2. 0. 0. 0. 0.
      253. 201. 1. 0. 0. 0. 0. 0. 64. 241. 216. 0. 0. 1. 0. 0. 0. 178.
      254. 255. 178. 179. 179. 90. 0. 1. 0. 26. 27. 26. 26. 25. 26. 13.
      2. 1. 0. 0. 0. 0. 0. 0. 0. 0. 0. 0. 0. 0. 165. 252. 255. 253. 237.
      40. 0. 0. 0. 140. 254. 13. 0. 0. 140. 127. 0. 2. 0. 76. 39. 2. 0.
      0. 26. 215. 1. 1. 0. 1. 0. 0. 1. 0. 26. 252. 0. 1. 0. 2. 1. 0. 1.
      186. 229. 2. 0. 3. 0. 1. 1. 0. 254. 201. 1. 1. 1. 2. 0. 1. 63.
      255. 216. 1. 1. 1. 0. 0. 0. 186. 255. 255. 178. 179. 179. 89. 1.
      0. 0. 26. 26. 26. 26. 27. 26. 13. 0. 1. 0. 0. 0. 0. 0. 0. 0. 0. 0.
      0. 0. 62. 255. 254. 254. 255. 112. 4. 0. 0. 0. 254. 127. 0. 0. 1.
      229. 0. 1. 2. 0. 76. 0. 0. 1. 0. 203. 178. 1. 1. 0. 1. 0. 2. 0. 1.
      204. 253. 1. 1. 0. 0. 0. 0. 10. 254. 47. 0. 0. 2. 0. 0. 0. 113.
      254. 71. 1. 0. 0. 0. 0. 0. 128. 254. 77. 2. 1. 1. 0. 0. 0. 255.
      255. 239. 179. 178. 179. 0. 0. 1. 0. 27. 26. 28. 26. 26. 26. 0. 0.
      0. 0. 0. 0. 0. 0. 0. 0. 0. 0. 0. 0. 1. 166. 254. 255. 254. 236.
      39. 0. 0. 0. 254. 254. 0. 0. 0. 140. 127. 0. 2. 0. 76. 39. 2. 0.
      0. 26. 216. 1. 1. 0. 1. 1. 0. 1. 0. 26. 253. 0. 1. 0. 2. 1. 0. 1.
      186. 207. 0. 0. 2. 0. 1. 1. 0. 254. 201. 1. 0. 0. 0. 0. 1. 63.
      255. 216. 0. 1. 1. 0. 0. 0. 186. 255. 254. 231. 179. 178. 90. 1.
      0. 0. 26. 26. 26. 26. 26. 25. 0. 0. 0. 0. 0. 0. 0. 0. 0. 0. 0. 0.
      0. 0. 1. 166. 252. 255. 253. 237. 40. 0. 0. 0. 254. 254. 0. 0. 0.
      140. 128. 0. 2. 0. 76. 39. 2. 0. 0. 26. 216. 1. 1. 0. 0. 0. 0. 1.
      0. 26. 253. 0. 1. 0. 2. 1. 0. 1. 186. 207. 0. 0. 2. 0. 1. 1. 0.
      254. 201. 1. 0. 0. 0. 0. 1. 64. 255. 216. 1. 1. 1. 0. 0. 0. 186.
      255. 254. 231. 179. 178. 91. 1. 0. 0. 26. 27. 26. 26. 26. 25. 0.
      0. 0. 0. 0. 0. 0. 0. 0. 0. 0. 0. 0. 0. 1. 166. 254. 255. 254. 236.
      40. 0. 0. 0. 254. 254. 0. 0. 0. 140. 127. 0. 2. 0. 77. 38. 2. 0.
      0. 26. 216. 1. 1. 0. 0. 0. 0. 1. 0. 26. 253. 0. 1. 0. 0. 0. 0. 1.
      186. 207. 0. 0. 2. 0. 0. 0. 0. 254. 201. 1. 0. 0. 0. 0. 1. 63.
      242. 216. 1. 1. 1. 0. 0. 0. 186. 254. 255. 178. 179. 179. 89. 0.
      1. 0. 26. 27. 26. 26. 27. 26. 13. 0. 0. 0. 0. 0. 0. 0. 0. 0. 0. 0.
      0. 0. 77. 253. 255. 254. 254. 69. 0. 0. 0. 0. 255. 191. 0. 2. 89.
      228. 1. 1. 0. 0. 1. 2. 1. 1. 0. 255. 0. 3. 0. 0. 0. 1. 2. 229.
      246. 228. 1. 0. 0. 0. 2. 0. 1. 72. 246. 232. 0. 2. 0. 0. 3. 1. 1.
      1. 1. 254. 0. 0. 1. 0. 255. 1. 0. 1. 1. 255. 1. 1. 0. 0. 255. 254.
      186. 179. 255. 69. 2. 1. 0. 0. 0. 26. 26. 27. 0. 0. 0. 0. 0. 0. 0.
      0. 0. 0. 0. 0. 0. 0. 0. 0. 26. 255. 255. 254. 255. 69. 0. 0. 0. 0.
      254. 191. 0. 0. 89. 229. 1. 0. 0. 0. 1. 2. 1. 1. 2. 254. 1. 1. 0.
      0. 0. 1. 0. 229. 254. 228. 0. 0. 3. 0. 0. 2. 0. 69. 247. 232. 0.
      2. 0. 0. 0. 0. 1. 1. 0. 253. 1. 1. 1. 0. 255. 1. 1. 1. 1. 254. 0.
      0. 1. 0. 255. 254. 186. 179. 255. 69. 1. 1. 0. 0. 0. 26. 26. 27.
      0. 0. 0. 0. 0. 0. 0. 0. 0. 0. 0. 0. 0. 0. 0. 0. 77. 254. 254. 254.
      254. 69. 0. 0. 0. 0. 255. 190. 0. 1. 89. 229. 1. 0. 0. 0. 0. 0. 1.
      1. 2. 254. 1. 1. 0. 0. 0. 1. 0. 229. 254. 228. 0. 0. 3. 0. 2. 0.
      0. 69. 247. 232. 0. 2. 0. 0. 3. 1. 1. 1. 0. 254. 0. 0. 1. 0. 255.
      1. 1. 1. 1. 254. 1. 1. 0. 0. 255. 254. 186. 179. 255. 69. 2. 1. 0.
      0. 0. 26. 26. 27. 0. 0. 0. 0. 0. 0. 0. 0. 0. 0. 0. 0. 0. 0. 0. 0.
      26. 255. 255. 254. 255. 69. 0. 0. 0. 0. 254. 191. 0. 2. 89. 228.
      1. 0. 0. 0. 1. 2. 1. 1. 0. 255. 1. 1. 0. 0. 0. 1. 2. 229. 246.
      228. 0. 0. 3. 0. 0. 1. 1. 72. 246. 232. 0. 2. 0. 0. 1. 0. 1. 1. 1.
      254. 0. 0. 1. 0. 254. 1. 0. 1. 1. 255. 1. 1. 0. 0. 255. 254. 186.
      179. 255. 69. 1. 1. 0. 0. 0. 26. 26. 27. 0. 0. 0. 0. 0. 0. 0. 0.
      0. 0. 0. 0. 0. 0. 0. 0. 26. 253. 254. 254. 254. 69. 0. 0. 0. 0.
      254. 191. 2. 0. 89. 229. 1. 1. 1. 0. 0. 1. 0. 0. 0. 254. 2. 0. 2.
      0. 0. 0. 0. 228. 246. 232. 2. 0. 0. 0. 0. 1. 0. 229. 254. 254. 2.
      2. 0. 0. 1. 0. 1. 1. 2. 254. 0. 0. 0. 0. 254. 64. 0. 1. 0. 255.
      64. 1. 1. 0. 255. 254. 185. 179. 255. 69. 2. 1. 0. 0. 0. 26. 25.
      27. 0. 1. 0. 0. 0. 0. 0. 0. 0. 0. 0. 0. 0. 0. 0. 0. 78. 254. 255.
      254. 255. 69. 0. 0. 0. 0. 254. 191. 0. 1. 89. 229. 1. 1. 0. 0. 0.
      1. 0. 0. 0. 254. 0. 3. 0. 0. 0. 0. 0. 228. 246. 229. 1. 0. 0. 0.
      0. 1. 0. 229. 253. 232. 2. 1. 0. 0. 1. 0. 1. 1. 0. 253. 1. 1. 1.
      0. 254. 1. 1. 0. 1. 255. 64. 0. 1. 0. 255. 254. 186. 179. 255. 76.
      1. 0. 0. 0. 0. 26. 26. 27. 0. 0. 0. 3. 3. 0. 0. 0. 0. 0. 0. 0. 0.
      0. 0. 0. 25. 254. 255. 254. 254. 69. 0. 0. 0. 0. 255. 191. 0. 1.
      89. 228. 1. 1. 0. 0. 0. 1. 0. 0. 0. 254. 0. 3. 0. 0. 0. 0. 0. 228.
      246. 229. 1. 0. 0. 0. 0. 1. 0. 69. 254. 232. 2. 1. 0. 0. 1. 0. 0.
      1. 0. 254. 1. 1. 1. 0. 254. 0. 0. 1. 0. 255. 64. 1. 0. 0. 252.
      253. 186. 179. 255. 69. 2. 1. 0. 0. 3. 27. 26. 26. 0. 0. 0. 0. 0.
      0. 0. 0. 0. 0. 0. 0. 0. 0. 0. 0. 26. 255. 254. 254. 254. 69. 0. 0.
      0. 0. 254. 191. 1. 1. 89. 228. 1. 1. 0. 0. 1. 2. 1. 1. 0. 255. 0.
      3. 0. 0. 0. 1. 2. 229. 246. 228. 1. 0. 0. 0. 0. 1. 2. 69. 253.
      232. 2. 0. 0. 0. 1. 0. 1. 1. 1. 255. 1. 1. 1. 0. 254. 64. 1. 1. 1.
      255. 64. 0. 1. 0. 255. 255. 186. 179. 255. 76. 1. 0. 0. 0. 3. 26.
      25. 26. 0. 0. 0. 3. 3. 0. 0. 0. 0. 0. 0. 0. 0. 0. 0. 0. 9. 254.
      254. 254. 254. 69. 0. 0. 0. 0. 253. 190. 0. 1. 90. 229. 1. 1. 0.
      0. 1. 2. 0. 0. 1. 255. 0. 3. 0. 0. 0. 1. 0. 229. 252. 229. 1. 0.
      0. 0. 0. 1. 2. 229. 246. 230. 2. 0. 0. 0. 1. 0. 1. 1. 0. 255. 1.
      1. 1. 0. 254. 1. 0. 2. 0. 254. 64. 1. 0. 0. 255. 254. 186. 179.
      255. 69. 2. 1. 0. 0. 0. 26. 26. 27. 0. 0. 0. 0. 0. 0. 0. 0. 0. 0.
      0. 0. 0. 0. 0. 0. 8. 255. 255. 254. 254. 69. 0. 0. 0. 0. 254. 190.
      0. 0. 89. 228. 1. 1. 0. 0. 1. 2. 1. 1. 2. 254. 0. 3. 0. 0. 0. 1.
      0. 229. 254. 229. 1. 0. 0. 0. 0. 1. 0. 227. 254. 255. 2. 2. 0. 0.
      1. 0. 0. 1. 1. 252. 0. 0. 0. 0. 254. 1. 0. 1. 1. 255. 64. 1. 1. 0.
      255. 254. 186. 179. 255. 69. 2. 1. 0. 0. 0. 26. 26. 26. 0. 0. 0.
      0. 0. 0. 0. 0. 0. 0. 0. 0. 0. 0. 0. 0. 0. 0. 0. 1. 98. 253. 0. 0.
      0. 0. 0. 0. 2. 20. 254. 253. 0. 0. 0. 0. 0. 0. 0. 255. 253. 255.
      0. 0. 0. 0. 1. 2. 245. 179. 1. 254. 0. 0. 0. 0. 1. 254. 254. 0. 0.
      254. 1. 1. 0. 0. 255. 255. 24. 1. 9. 228. 0. 0. 1. 0. 254. 254.
      255. 253. 255. 254. 255. 19. 2. 0. 1. 1. 1. 2. 0. 254. 0. 0. 0. 0.
      0. 1. 1. 0. 0. 0. 0. 2. 0. 0. 0. 0. 0. 0. 0. 0. 0. 0. 0. 0. 0. 0.
      0. 1. 179. 253. 0. 0. 0. 0. 0. 0. 0. 78. 254. 255. 0. 0. 0. 0. 0.
      0. 0. 253. 254. 255. 0. 0. 0. 0. 1. 27. 252. 143. 1. 254. 0. 0. 1.
      0. 1. 229. 253. 1. 1. 255. 1. 1. 2. 0. 255. 254. 16. 1. 71. 229.
      1. 1. 0. 0. 255. 255. 253. 255. 253. 255. 255. 26. 1. 0. 2. 1. 2.
      1. 0. 254. 0. 0. 0. 0. 0. 0. 0. 2. 0. 1. 1. 0. 2. 0. 0. 0. 0. 0.
      0. 0. 0. 0. 0. 0. 0. 0. 1. 0. 97. 255. 0. 0. 0. 0. 0. 0. 2. 20.
      255. 255. 0. 0. 0. 0. 0. 0. 0. 253. 254. 251. 0. 0. 0. 0. 3. 1.
      246. 179. 0. 254. 0. 0. 0. 0. 2. 172. 254. 1. 0. 254. 1. 0. 1. 0.
      255. 255. 26. 1. 9. 229. 0. 2. 0. 0. 255. 254. 254. 253. 253. 254.
      255. 26. 1. 0. 0. 0. 1. 0. 0. 254. 0. 0. 0. 0. 0. 2. 1. 1. 0. 0.
      1. 0. 2. 0. 0. 0. 0. 0. 0. 0. 0. 0. 0. 0. 0. 0. 0. 0. 98. 255. 0.
      0. 0. 0. 0. 0. 0. 20. 253. 255. 0. 0. 0. 0. 0. 0. 0. 254. 253.
      254. 0. 0. 0. 0. 1. 1. 244. 179. 0. 255. 0. 0. 0. 0. 1. 172. 254.
      1. 0. 254. 1. 1. 0. 0. 255. 255. 24. 1. 9. 229. 0. 0. 1. 0. 254.
      254. 254. 254. 255. 255. 255. 26. 1. 0. 1. 1. 0. 0. 0. 254. 0. 0.
      0. 0. 0. 0. 1. 0. 0. 0. 1. 0. 2. 0. 0. 0. 0. 0. 0. 0. 0. 0. 0. 0.
      0. 0. 1. 0. 208. 255. 0. 0. 0. 0. 0. 0. 0. 76. 255. 255. 0. 0. 0.
      0. 0. 0. 2. 255. 254. 255. 0. 0. 0. 0. 2. 26. 254. 143. 1. 254. 0.
      1. 1. 0. 0. 253. 71. 0. 2. 253. 0. 0. 0. 0. 255. 254. 15. 2. 72.
      229. 0. 0. 1. 0. 255. 253. 255. 255. 254. 255. 255. 26. 1. 0. 0.
      1. 2. 2. 0. 254. 0. 0. 0. 0. 0. 1. 1. 0. 0. 0. 1. 0. 2. 0. 0. 0.
      0. 0. 0. 0. 0. 0. 0. 0. 0. 0. 0. 0. 99. 254. 0. 0. 0. 0. 0. 0. 2.
      19. 255. 255. 0. 0. 0. 0. 0. 0. 0. 255. 254. 255. 0. 0. 0. 0. 1.
      1. 246. 179. 0. 255. 0. 0. 0. 0. 0. 172. 255. 0. 0. 255. 1. 1. 0.
      0. 255. 253. 25. 1. 0. 227. 0. 0. 1. 0. 254. 254. 255. 253. 255.
      254. 254. 19. 2. 0. 1. 1. 1. 2. 0. 254. 0. 1. 2. 0. 0. 0. 1. 0. 0.
      0. 0. 0. 1. 0. 0. 0. 0. 0. 0. 0. 0. 0. 0. 0. 0. 0. 1. 1. 98. 255.
      0. 0. 0. 0. 0. 0. 0. 20. 255. 255. 0. 0. 0. 0. 0. 0. 0. 253. 255.
      255. 0. 0. 0. 0. 1. 0. 244. 179. 0. 254. 0. 0. 0. 0. 1. 171. 254.
      0. 0. 254. 1. 0. 1. 0. 254. 253. 26. 1. 9. 228. 0. 2. 0. 0. 254.
      254. 255. 254. 255. 254. 254. 19. 2. 0. 1. 1. 1. 0. 0. 254. 0. 1.
      1. 0. 0. 0. 0. 1. 0. 0. 1. 0. 0. 0. 0. 0. 0. 0. 0. 0. 0. 0. 0. 0.
      0. 0. 0. 0. 99. 255. 0. 0. 0. 0. 0. 0. 3. 21. 253. 255. 0. 0. 0.
      0. 0. 0. 0. 254. 253. 254. 0. 0. 0. 0. 0. 1. 246. 179. 0. 254. 0.
      0. 0. 0. 2. 254. 255. 0. 0. 255. 1. 1. 0. 0. 254. 254. 26. 0. 0.
      227. 0. 0. 1. 0. 254. 254. 255. 254. 255. 254. 254. 19. 2. 0. 1.
      1. 1. 0. 0. 254. 0. 1. 1. 0. 0. 1. 0. 1. 0. 0. 1. 0. 0. 0. 0. 0.
      0. 0. 0. 0. 0. 0. 0. 0. 0. 0. 0. 0. 98. 255. 0. 0. 0. 0. 0. 0. 0.
      20. 253. 255. 0. 0. 0. 0. 0. 0. 0. 254. 253. 254. 0. 0. 0. 0. 1.
      1. 246. 179. 1. 255. 0. 0. 0. 0. 0. 172. 254. 0. 1. 255. 1. 1. 0.
      0. 255. 253. 24. 1. 9. 228. 0. 0. 1. 0. 254. 254. 255. 255. 253.
      255. 254. 19. 2. 0. 1. 1. 1. 1. 0. 254. 0. 1. 2. 0. 0. 0. 1. 0. 0.
      0. 0. 0. 1. 0. 0. 0. 0. 0. 0. 0. 0. 0. 0. 0. 0. 0. 0. 0. 98. 255.
      0. 0. 0. 0. 0. 0. 3. 21. 254. 255. 0. 0. 0. 0. 0. 0. 0. 254. 254.
      254. 0. 0. 0. 0. 1. 1. 245. 179. 0. 254. 0. 0. 0. 0. 10. 171. 254.
      0. 1. 255. 1. 1. 0. 0. 255. 253. 24. 2. 9. 228. 0. 0. 1. 0. 254.
      254. 255. 254. 255. 254. 254. 26. 0. 0. 1. 1. 1. 0. 0. 254. 0. 1.
      0. 0. 0. 0. 0. 1. 0. 0. 1. 1. 0. 0. 0. 0. 0. 0. 0. 0. 0. 0. 0. 0.
      0. 0. 254. 196. 178. 177. 0. 0. 1. 0. 1. 222. 255. 1. 2. 1. 0. 0.
      1. 0. 45. 254. 255. 198. 1. 2. 0. 0. 0. 0. 63. 254. 26. 255. 252.
      64. 0. 0. 0. 0. 0. 0. 0. 0. 0. 255. 1. 0. 0. 0. 0. 0. 0. 0. 0.
      255. 1. 0. 3. 0. 96. 0. 0. 0. 32. 254. 1. 1. 1. 0. 254. 254. 178.
      254. 209. 0. 0. 0. 0. 0. 1. 26. 26. 0. 2. 1. 0. 0. 0. 0. 0. 0. 0.
      0. 0. 0. 0. 0. 0. 0. 0. 0. 0. 112. 255. 179. 179. 177. 0. 0. 0. 1.
      2. 255. 255. 1. 0. 1. 0. 0. 0. 1. 0. 255. 255. 178. 1. 0. 0. 0. 0.
      0. 151. 25. 26. 253. 254. 1. 0. 0. 0. 0. 0. 0. 0. 0. 0. 118. 2. 0.
      0. 0. 0. 0. 0. 0. 0. 254. 3. 0. 0. 127. 50. 0. 0. 0. 127. 102. 0.
      0. 1. 76. 253. 254. 254. 254. 78. 1. 0. 0. 1. 0. 3. 26. 26. 2. 3.
      0. 0. 0. 0. 0. 0. 0. 0. 0. 0. 0. 0. 0. 0. 0. 1. 255. 179. 179.
      179. 1. 1. 0. 0. 0. 1. 255. 0. 0. 1. 1. 1. 0. 0. 1. 255. 255. 179.
      0. 0. 0. 0. 0. 0. 0. 255. 26. 255. 255. 0. 0. 0. 0. 0. 0. 0. 0. 0.
      1. 25. 1. 0. 0. 0. 0. 0. 0. 0. 0. 255. 0. 4. 0. 1. 126. 0. 0. 0.
      128. 0. 1. 1. 0. 0. 252. 254. 179. 255. 76. 0. 0. 0. 0. 0. 2. 26.
      26. 0. 0. 0. 0. 0. 0. 0. 0. 0. 0. 0. 0. 0. 0. 0. 0. 0. 0. 0. 253.
      253. 179. 179. 1. 1. 0. 0. 0. 128. 255. 1. 1. 1. 1. 1. 0. 0. 1.
      253. 254. 176. 1. 0. 0. 0. 0. 0. 0. 254. 29. 255. 255. 0. 0. 0. 0.
      0. 0. 0. 0. 0. 1. 25. 1. 0. 0. 0. 0. 0. 0. 0. 0. 255. 0. 4. 0. 0.
      128. 0. 0. 0. 128. 0. 1. 1. 0. 4. 255. 255. 179. 251. 76. 0. 0. 0.
      0. 0. 0. 0. 25. 2. 0. 0. 0. 0. 0. 0. 0. 0. 0. 0. 0. 0. 0. 0. 0. 0.
      0. 0. 255. 179. 179. 134. 1. 1. 0. 0. 1. 166. 255. 1. 0. 0. 1. 1.
      0. 0. 0. 253. 253. 179. 1. 0. 0. 0. 0. 0. 0. 254. 26. 255. 253. 0.
      0. 0. 0. 0. 0. 0. 0. 0. 89. 19. 1. 0. 0. 0. 0. 0. 0. 0. 89. 191.
      0. 3. 0. 108. 128. 0. 0. 0. 171. 0. 1. 1. 0. 1. 255. 255. 179.
      253. 49. 0. 0. 0. 0. 0. 0. 27. 26. 2. 1. 0. 0. 0. 0. 0. 0. 0. 0.
      0. 0. 0. 0. 0. 0. 1. 166. 255. 179. 178. 176. 0. 0. 1. 0. 0. 254.
      254. 0. 1. 1. 0. 0. 1. 0. 25. 254. 253. 177. 1. 1. 0. 0. 0. 0.
      255. 255. 25. 255. 253. 1. 0. 0. 0. 0. 0. 0. 0. 0. 0. 232. 2. 0.
      0. 0. 0. 0. 0. 0. 0. 255. 1. 0. 2. 0. 0. 0. 1. 0. 89. 229. 1. 1.
      1. 0. 254. 217. 179. 252. 130. 1. 0. 0. 0. 0. 5. 26. 27. 0. 1. 0.
      0. 0. 0. 0. 0. 0. 0. 0. 0. 0. 0. 0. 0. 0. 0. 1. 0. 255. 179. 179.
      179. 1. 1. 0. 0. 0. 0. 254. 1. 1. 1. 1. 1. 0. 0. 0. 255. 253. 176.
      1. 0. 0. 0. 0. 0. 0. 253. 27. 255. 255. 0. 0. 0. 0. 0. 0. 0. 0. 0.
      0. 25. 1. 0. 0. 0. 0. 0. 0. 0. 0. 255. 0. 4. 0. 0. 128. 0. 1. 0.
      127. 0. 1. 1. 0. 4. 255. 255. 178. 253. 75. 0. 0. 0. 0. 0. 0. 26.
      26. 0. 0. 0. 0. 0. 0. 0. 0. 0. 0. 0. 0. 0. 0. 0. 0. 0. 0. 0. 254.
      219. 178. 134. 1. 1. 0. 0. 0. 210. 254. 0. 1. 0. 1. 1. 0. 0. 1.
      254. 254. 177. 0. 0. 0. 0. 0. 0. 1. 253. 25. 254. 254. 0. 0. 0. 0.
      0. 0. 0. 0. 1. 89. 19. 1. 0. 0. 0. 0. 0. 0. 1. 89. 191. 0. 3. 0.
      108. 127. 0. 0. 0. 171. 0. 1. 1. 0. 1. 210. 255. 254. 254. 50. 0.
      0. 0. 0. 0. 1. 26. 26. 1. 0. 0. 0. 0. 0. 0. 0. 0. 0. 0. 0. 0. 0.
      0. 0. 0. 0. 50. 255. 179. 179. 134. 1. 1. 0. 0. 2. 166. 184. 0. 0.
      0. 1. 1. 0. 0. 1. 254. 254. 179. 0. 0. 0. 0. 0. 0. 0. 255. 26.
      254. 254. 0. 0. 0. 0. 0. 0. 0. 0. 1. 89. 19. 1. 0. 0. 0. 0. 0. 0.
      1. 89. 191. 0. 3. 0. 108. 126. 0. 0. 0. 171. 0. 1. 1. 0. 1. 254.
      255. 221. 254. 50. 0. 0. 0. 0. 0. 0. 17. 26. 0. 1. 0. 0. 0. 0. 0.
      0. 0. 0. 0. 0. 0. 0. 0. 0. 0. 0. 50. 255. 178. 179. 134. 1. 1. 0.
      0. 1. 210. 184. 0. 0. 0. 1. 0. 0. 0. 1. 254. 255. 178. 0. 0. 0. 0.
      0. 0. 1. 253. 26. 255. 255. 0. 0. 0. 0. 0. 0. 0. 0. 0. 89. 19. 1.
      0. 0. 0. 0. 0. 0. 0. 89. 191. 0. 3. 0. 108. 127. 0. 0. 0. 171. 0.
      1. 1. 0. 1. 253. 255. 179. 253. 49. 0. 0. 0. 0. 0. 0. 26. 26. 1.
      1. 0. 0. 0. 0. 0. 0. 0. 0. 0. 0. 0. 0. 0. 0. 0. 0. 0. 1. 95. 0. 1.
      0. 0. 0. 0. 0. 1. 115. 242. 3. 1. 0. 0. 0. 0. 0. 1. 254. 0. 0. 0.
      1. 0. 0. 0. 0. 254. 253. 254. 254. 115. 0. 3. 0. 0. 127. 252. 0.
      0. 0. 255. 0. 1. 0. 0. 253. 129. 1. 0. 1. 254. 2. 1. 0. 0. 191.
      254. 1. 0. 0. 255. 0. 0. 0. 0. 0. 253. 255. 179. 254. 1. 1. 1. 0.
      0. 0. 0. 26. 26. 0. 0. 0. 4. 0. 0. 0. 0. 0. 0. 0. 0. 0. 0. 0. 0.
      0. 0. 1. 94. 0. 0. 0. 0. 0. 0. 0. 1. 115. 242. 2. 1. 0. 0. 0. 0.
      1. 1. 254. 0. 0. 0. 1. 0. 0. 0. 0. 246. 252. 254. 254. 115. 0. 3.
      0. 0. 127. 254. 0. 0. 1. 254. 0. 0. 0. 1. 255. 76. 1. 0. 1. 253.
      0. 2. 0. 0. 128. 255. 2. 1. 1. 255. 0. 0. 0. 0. 38. 255. 254. 179.
      254. 39. 1. 0. 0. 0. 0. 0. 27. 26. 1. 0. 0. 4. 0. 0. 0. 0. 0. 0.
      0. 0. 0. 0. 0. 0. 0. 0. 1. 94. 1. 1. 0. 0. 0. 0. 0. 1. 114. 242.
      2. 1. 0. 0. 0. 0. 0. 1. 254. 0. 0. 0. 1. 0. 0. 0. 0. 246. 254.
      254. 254. 115. 0. 3. 0. 0. 127. 254. 0. 0. 1. 255. 0. 0. 0. 0.
      254. 77. 0. 2. 1. 253. 1. 2. 0. 0. 190. 255. 0. 1. 0. 255. 0. 0.
      0. 0. 38. 253. 252. 178. 254. 1. 1. 0. 0. 0. 0. 1. 27. 27. 0. 0.
      0. 4. 0. 0. 0. 0. 0. 0. 0. 0. 0. 0. 0. 0. 0. 0. 1. 94. 1. 1. 0. 0.
      0. 0. 1. 1. 0. 242. 2. 0. 0. 0. 0. 0. 0. 1. 253. 160. 0. 1. 1. 0.
      0. 0. 0. 247. 255. 254. 255. 115. 0. 3. 0. 1. 127. 253. 1. 0. 0.
      255. 0. 0. 0. 1. 254. 77. 0. 0. 1. 253. 0. 2. 0. 0. 128. 255. 0.
      1. 1. 255. 0. 0. 0. 0. 0. 254. 255. 178. 253. 1. 1. 0. 0. 0. 0. 1.
      26. 27. 1. 2. 0. 4. 0. 0. 0. 0. 0. 0. 0. 0. 0. 0. 0. 0. 0. 0. 1.
      94. 1. 1. 0. 0. 0. 0. 0. 1. 114. 242. 2. 1. 0. 0. 0. 0. 0. 1. 254.
      0. 0. 0. 1. 0. 0. 0. 0. 246. 254. 254. 254. 115. 0. 3. 0. 0. 127.
      255. 0. 0. 0. 255. 0. 0. 0. 1. 255. 254. 0. 0. 1. 253. 0. 2. 0. 0.
      128. 255. 2. 0. 0. 254. 0. 0. 0. 0. 38. 255. 255. 179. 255. 39. 1.
      0. 0. 0. 0. 1. 26. 26. 1. 0. 0. 4. 0. 0. 0. 0. 0. 0. 0. 0. 0. 0.
      0. 0. 0. 0. 1. 0. 253. 1. 0. 0. 0. 0. 0. 0. 1. 255. 83. 0. 0. 0.
      0. 0. 0. 0. 219. 254. 1. 1. 1. 1. 0. 0. 0. 166. 255. 255. 252.
      248. 1. 0. 0. 0. 0. 254. 1. 1. 0. 57. 217. 0. 0. 1. 190. 253. 1.
      0. 1. 1. 226. 1. 0. 1. 96. 254. 0. 0. 1. 64. 217. 0. 0. 0. 0. 192.
      254. 177. 205. 253. 1. 1. 0. 0. 0. 1. 26. 26. 26. 0. 0. 0. 0. 0.
      0. 0. 0. 0. 0. 0. 0. 0. 0. 0. 0. 0. 0. 94. 1. 1. 0. 0. 0. 0. 0. 0.
      0. 241. 1. 0. 0. 0. 0. 0. 1. 1. 254. 2. 0. 1. 1. 0. 0. 0. 0. 255.
      252. 253. 255. 115. 0. 3. 0. 0. 127. 255. 3. 0. 1. 255. 0. 0. 0.
      0. 253. 254. 0. 2. 1. 253. 1. 2. 0. 0. 191. 255. 1. 0. 0. 255. 0.
      0. 0. 0. 0. 255. 253. 178. 253. 38. 1. 1. 0. 0. 1. 2. 27. 26. 0.
      0. 0. 4. 0. 0. 0. 0. 0. 0. 0. 0. 0. 0. 0. 0. 0. 0. 1. 255. 2. 1.
      0. 0. 0. 0. 0. 1. 114. 242. 0. 0. 0. 0. 0. 0. 0. 1. 254. 0. 0. 1.
      1. 0. 0. 0. 0. 246. 254. 254. 253. 115. 0. 3. 0. 0. 127. 255. 2.
      0. 0. 255. 0. 0. 0. 0. 254. 255. 1. 0. 1. 253. 0. 2. 0. 0. 191.
      255. 1. 0. 0. 255. 0. 0. 0. 0. 0. 254. 255. 179. 254. 1. 1. 0. 0.
      0. 0. 2. 26. 25. 3. 0. 0. 4. 0. 0. 0. 0. 0. 0. 0. 0. 0. 0. 0. 0.
      0. 0. 1. 94. 1. 1. 0. 0. 0. 0. 0. 2. 1. 240. 1. 1. 0. 0. 0. 0. 0.
      0. 252. 1. 0. 1. 0. 0. 0. 0. 0. 247. 253. 255. 255. 115. 0. 0. 0.
      1. 127. 253. 0. 0. 0. 255. 0. 0. 0. 1. 254. 129. 1. 0. 1. 253. 0.
      2. 0. 1. 128. 254. 0. 0. 0. 255. 0. 0. 0. 0. 0. 254. 255. 179.
      254. 1. 1. 0. 0. 0. 1. 1. 28. 25. 3. 0. 0. 4. 0. 0. 0. 0. 0. 0. 0.
      0. 0. 0. 0. 0. 0. 0. 0. 0. 254. 1. 0. 0. 0. 0. 0. 0. 0. 184. 83.
      0. 0. 0. 0. 0. 0. 1. 220. 254. 1. 1. 1. 1. 0. 0. 0. 230. 255. 255.
      252. 248. 1. 0. 0. 2. 0. 254. 1. 1. 0. 57. 217. 0. 0. 1. 191. 254.
      1. 1. 1. 1. 226. 1. 0. 1. 0. 254. 1. 0. 1. 64. 217. 0. 0. 0. 0.
      192. 254. 178. 205. 253. 1. 1. 0. 0. 0. 1. 16. 26. 26. 2. 0. 0. 0.
      0. 0. 0. 0. 0. 0. 0. 0. 0. 0. 8. 254. 254. 254. 255. 254. 255.
      254. 179. 0. 0. 0. 0. 0. 0. 0. 128. 255. 0. 0. 0. 0. 0. 0. 0. 26.
      254. 2. 2. 0. 0. 0. 0. 1. 0. 231. 0. 0. 1. 0. 0. 0. 1. 8. 254. 2.
      0. 0. 0. 0. 0. 0. 2. 254. 1. 1. 0. 0. 0. 0. 0. 0. 242. 89. 0. 0.
      0. 0. 0. 0. 0. 254. 95. 0. 1. 0. 0. 0. 0. 0. 3. 26. 1. 1. 0. 1. 0.
      0. 0. 0. 0. 0. 0. 0. 0. 0. 0. 0. 0. 0. 18. 254. 254. 254. 255.
      254. 255. 254. 179. 0. 1. 0. 0. 0. 0. 0. 128. 255. 0. 0. 0. 0. 0.
      0. 0. 18. 166. 0. 1. 0. 0. 0. 0. 1. 0. 231. 0. 0. 0. 0. 0. 0. 0.
      76. 253. 0. 0. 0. 0. 0. 0. 0. 0. 253. 1. 1. 0. 0. 0. 0. 0. 0. 240.
      89. 0. 0. 0. 0. 0. 0. 1. 255. 95. 1. 1. 0. 0. 0. 0. 0. 3. 27. 1.
      1. 1. 0. 0. 0. 0. 0. 0. 0. 0. 0. 0. 0. 0. 0. 0. 0. 25. 254. 255.
      255. 255. 255. 255. 254. 179. 0. 0. 0. 0. 0. 0. 0. 128. 255. 0. 0.
      0. 0. 0. 0. 0. 26. 254. 2. 2. 0. 0. 0. 0. 1. 1. 231. 0. 0. 0. 0.
      0. 0. 1. 8. 254. 2. 0. 0. 0. 0. 0. 0. 1. 254. 1. 1. 0. 0. 0. 0. 0.
      1. 242. 90. 0. 0. 0. 0. 0. 0. 18. 254. 97. 1. 1. 0. 0. 0. 0. 0. 4.
      25. 0. 0. 1. 1. 0. 0. 0. 0. 0. 0. 0. 0. 0. 0. 0. 0. 0. 0. 8. 254.
      255. 255. 255. 255. 255. 254. 179. 0. 0. 0. 0. 0. 0. 0. 127. 255.
      0. 0. 0. 0. 0. 0. 0. 26. 254. 3. 1. 0. 0. 0. 0. 1. 1. 231. 1. 0.
      0. 0. 0. 0. 0. 8. 252. 0. 0. 0. 0. 0. 0. 0. 1. 253. 54. 2. 0. 0.
      0. 0. 1. 0. 242. 89. 0. 0. 0. 0. 0. 0. 18. 216. 96. 1. 1. 0. 0. 0.
      0. 0. 3. 27. 0. 0. 1. 1. 0. 0. 0. 0. 0. 0. 0. 0. 0. 0. 0. 0. 0. 0.
      19. 254. 255. 255. 255. 255. 254. 255. 178. 0. 1. 0. 0. 0. 0. 0.
      191. 255. 1. 0. 0. 0. 0. 0. 0. 18. 165. 2. 0. 0. 0. 0. 0. 1. 0.
      254. 2. 0. 1. 0. 0. 0. 1. 8. 255. 0. 0. 0. 0. 0. 0. 0. 1. 254. 54.
      2. 0. 0. 0. 0. 1. 0. 242. 90. 1. 0. 0. 0. 0. 0. 18. 216. 97. 1. 1.
      0. 0. 0. 0. 0. 3. 27. 0. 0. 1. 1. 0. 0. 0. 0. 0. 0. 0. 0. 0. 0. 0.
      0. 0. 0. 25. 254. 255. 255. 255. 255. 254. 255. 179. 0. 0. 0. 0.
      0. 0. 0. 128. 255. 1. 0. 0. 0. 0. 0. 0. 18. 253. 3. 0. 0. 0. 0. 0.
      1. 0. 254. 2. 1. 0. 0. 0. 0. 0. 8. 254. 1. 0. 0. 0. 0. 0. 0. 1.
      254. 1. 1. 0. 0. 0. 0. 0. 1. 242. 90. 1. 0. 0. 0. 0. 0. 1. 254.
      97. 1. 1. 0. 0. 0. 0. 0. 3. 26. 0. 0. 1. 1. 0. 0. 0. 0. 0. 0. 0.
      0. 0. 0. 0. 0. 0. 0. 1. 1. 0. 0. 0. 0. 254. 254. 1. 0. 0. 0. 4. 0.
      1. 0. 254. 26. 0. 0. 0. 0. 0. 1. 1. 255. 126. 1. 0. 0. 0. 0. 1. 1.
      179. 229. 1. 2. 0. 0. 0. 0. 1. 76. 254. 1. 0. 0. 0. 0. 0. 0. 0.
      254. 1. 0. 0. 0. 0. 0. 1. 2. 255. 0. 0. 0. 0. 0. 0. 0. 25. 254.
      27. 1. 1. 0. 0. 0. 0. 0. 2. 0. 1. 1. 0. 1. 0. 0. 0. 0. 0. 0. 0. 0.
      0. 0. 0. 0. 0. 0. 0. 253. 255. 255. 255. 255. 255. 254. 179. 0. 1.
      0. 0. 0. 0. 0. 128. 255. 1. 0. 0. 0. 0. 0. 0. 18. 165. 2. 0. 0. 0.
      0. 0. 1. 0. 254. 1. 1. 1. 0. 0. 0. 1. 8. 253. 2. 0. 0. 0. 0. 0. 0.
      2. 254. 1. 1. 0. 0. 0. 0. 0. 1. 242. 90. 1. 0. 0. 0. 0. 0. 2. 216.
      97. 1. 1. 0. 0. 0. 0. 0. 3. 25. 0. 0. 1. 1. 0. 0. 0. 0. 0. 0. 0.
      0. 0. 0. 0. 0. 0. 0. 26. 254. 255. 255. 255. 255. 253. 254. 178.
      0. 0. 1. 0. 0. 0. 0. 190. 254. 0. 0. 0. 0. 0. 0. 0. 26. 166. 0. 1.
      0. 0. 0. 0. 1. 0. 253. 1. 0. 0. 0. 0. 0. 0. 8. 254. 1. 0. 0. 0. 0.
      0. 0. 1. 254. 1. 1. 0. 0. 0. 0. 1. 0. 242. 89. 0. 0. 0. 0. 0. 0.
      0. 254. 95. 0. 1. 0. 0. 0. 0. 0. 3. 26. 1. 1. 0. 1. 0. 0. 0. 0. 0.
      0. 0. 0. 0. 0. 0. 0. 0. 0. 20. 254. 255. 255. 255. 255. 254. 254.
      178. 0. 0. 1. 0. 0. 0. 0. 128. 255. 1. 0. 0. 0. 0. 0. 0. 26. 254.
      2. 2. 0. 0. 0. 0. 1. 0. 231. 0. 0. 0. 0. 0. 0. 1. 8. 254. 2. 0. 0.
      0. 0. 0. 0. 2. 254. 1. 1. 0. 0. 0. 0. 0. 0. 242. 90. 1. 0. 0. 0.
      0. 0. 1. 255. 96. 1. 1. 1. 0. 0. 0. 0. 3. 25. 0. 0. 1. 0. 0. 0. 0.
      0. 0. 0. 0. 0. 0. 0. 0. 0. 0. 0. 1. 38. 77. 76. 23. 0. 0. 0. 0. 0.
      140. 254. 14. 38. 216. 115. 1. 1. 0. 0. 252. 127. 1. 0. 1. 255. 0.
      3. 0. 0. 253. 242. 0. 0. 1. 229. 1. 0. 0. 0. 25. 253. 254. 255.
      254. 0. 1. 0. 1. 0. 254. 127. 0. 1. 0. 255. 1. 0. 1. 0. 255. 1. 0.
      1. 0. 255. 1. 0. 1. 0. 254. 215. 0. 0. 0. 237. 1. 0. 0. 0. 4. 141.
      254. 254. 25. 0. 0. 3. 3. 0. 0. 0. 0. 0. 0. 0. 0. 0. 0. 0. 1. 38.
      77. 76. 23. 0. 0. 0. 0. 0. 140. 254. 14. 38. 216. 115. 1. 1. 0. 0.
      253. 127. 1. 0. 1. 255. 0. 3. 0. 0. 254. 254. 0. 0. 1. 229. 1. 0.
      0. 0. 25. 255. 252. 254. 253. 0. 1. 0. 1. 0. 255. 216. 1. 0. 1.
      255. 1. 0. 1. 0. 255. 64. 1. 1. 1. 254. 1. 0. 1. 0. 254. 217. 0.
      0. 0. 236. 1. 0. 0. 0. 4. 254. 253. 253. 96. 0. 0. 3. 3. 0. 0. 0.
      0. 0. 0. 0. 0. 0. 0. 0. 1. 38. 77. 76. 23. 1. 0. 0. 0. 0. 253.
      254. 13. 38. 216. 229. 1. 1. 0. 0. 255. 127. 0. 1. 2. 255. 0. 3.
      0. 0. 254. 241. 0. 1. 1. 228. 1. 0. 0. 0. 48. 254. 255. 254. 254.
      0. 1. 0. 1. 0. 254. 217. 0. 1. 1. 255. 1. 0. 1. 0. 254. 64. 1. 0.
      0. 255. 1. 0. 1. 0. 255. 216. 0. 2. 0. 235. 1. 0. 0. 0. 5. 140.
      254. 251. 25. 0. 0. 3. 3. 0. 0. 0. 0. 0. 0. 0. 0. 0. 0. 0. 2. 38.
      76. 77. 24. 0. 0. 0. 0. 0. 140. 254. 14. 1. 216. 115. 1. 1. 0. 0.
      255. 127. 0. 1. 2. 255. 0. 3. 0. 0. 254. 241. 0. 1. 1. 228. 1. 0.
      0. 0. 25. 253. 254. 255. 254. 0. 0. 0. 1. 0. 255. 128. 0. 1. 0.
      255. 0. 0. 0. 0. 255. 64. 0. 0. 0. 255. 0. 0. 1. 0. 254. 217. 1.
      1. 0. 236. 1. 0. 0. 0. 4. 254. 253. 253. 96. 0. 0. 3. 3. 0. 0. 0.
      0. 0. 0. 0. 0. 0. 0. 0. 1. 38. 76. 76. 23. 0. 0. 0. 0. 0. 253.
      255. 14. 39. 217. 229. 1. 1. 0. 0. 254. 126. 0. 1. 1. 252. 0. 3.
      0. 0. 255. 241. 1. 2. 159. 229. 1. 0. 0. 0. 28. 255. 255. 254.
      254. 0. 1. 0. 1. 0. 255. 217. 0. 1. 1. 255. 1. 0. 1. 0. 254. 1. 1.
      0. 0. 254. 1. 0. 1. 0. 254. 216. 0. 0. 0. 236. 1. 0. 0. 0. 27.
      140. 253. 253. 96. 0. 0. 3. 3. 0. 0. 0. 0. 0. 0. 0. 0. 0. 0. 0. 2.
      38. 77. 76. 23. 0. 0. 0. 0. 0. 141. 254. 13. 38. 217. 115. 1. 1.
      0. 0. 252. 127. 0. 1. 1. 252. 0. 3. 0. 0. 253. 242. 1. 2. 159.
      229. 1. 0. 0. 0. 25. 253. 254. 255. 254. 0. 0. 0. 1. 0. 255. 127.
      0. 1. 0. 255. 0. 0. 0. 0. 254. 64. 0. 0. 0. 255. 0. 0. 1. 0. 254.
      216. 1. 1. 0. 236. 1. 0. 0. 0. 3. 254. 253. 253. 96. 0. 0. 3. 3.
      0. 0. 0. 0. 0. 0. 0. 0. 0. 0. 0. 1. 39. 77. 76. 23. 0. 0. 0. 0. 0.
      140. 255. 0. 38. 216. 115. 1. 1. 0. 0. 255. 127. 0. 1. 2. 255. 0.
      3. 0. 0. 255. 242. 0. 1. 1. 228. 1. 0. 0. 0. 48. 255. 255. 254.
      254. 0. 1. 0. 1. 0. 255. 217. 0. 1. 1. 255. 1. 0. 1. 0. 255. 1. 0.
      0. 1. 255. 1. 0. 1. 0. 252. 216. 1. 1. 0. 236. 1. 1. 1. 0. 3. 140.
      252. 252. 95. 0. 0. 3. 3. 0. 0. 0. 0. 0. 0. 0. 0. 0. 0. 0. 2. 38.
      77. 76. 23. 0. 0. 0. 0. 0. 139. 254. 13. 38. 216. 115. 1. 1. 0. 0.
      253. 128. 1. 0. 1. 255. 0. 3. 0. 0. 252. 242. 0. 0. 1. 229. 1. 0.
      0. 0. 26. 254. 254. 255. 254. 0. 0. 0. 1. 0. 254. 216. 0. 1. 0.
      255. 0. 0. 0. 0. 254. 64. 0. 0. 1. 255. 0. 0. 1. 0. 255. 216. 1.
      1. 0. 236. 1. 0. 0. 0. 5. 140. 253. 252. 94. 0. 0. 3. 3. 0. 0. 0.
      0. 0. 0. 0. 0. 0. 0. 0. 1. 38. 77. 76. 23. 1. 0. 0. 0. 0. 254.
      255. 13. 38. 217. 229. 1. 1. 0. 0. 255. 128. 0. 1. 1. 252. 0. 3.
      0. 0. 251. 242. 1. 2. 159. 229. 1. 0. 0. 0. 25. 255. 255. 254.
      254. 0. 1. 0. 1. 0. 254. 216. 0. 1. 1. 255. 1. 0. 1. 0. 255. 1. 0.
      0. 1. 255. 1. 0. 1. 0. 254. 217. 0. 1. 1. 236. 1. 0. 0. 0. 6. 255.
      255. 254. 94. 0. 0. 3. 3. 0. 0. 0. 0. 0. 0. 0. 0. 0. 0. 0. 1. 38.
      76. 76. 23. 0. 0. 0. 0. 0. 140. 254. 14. 39. 216. 229. 1. 1. 0. 0.
      252. 127. 1. 0. 1. 255. 0. 3. 0. 0. 253. 242. 0. 0. 1. 229. 1. 0.
      0. 0. 25. 255. 255. 254. 254. 0. 1. 0. 1. 0. 253. 216. 0. 1. 1.
      255. 1. 0. 1. 0. 255. 0. 1. 0. 1. 255. 1. 0. 1. 0. 255. 216. 0. 1.
      1. 236. 1. 1. 1. 0. 6. 254. 255. 254. 94. 0. 0. 3. 3. 0. 0. 0. 0.
      0. 0. 0. 0. 0. 0. 0. 1. 1. 0. 1. 77. 3. 0. 0. 1. 0. 1. 64. 254.
      127. 128. 128. 255. 13. 2. 0. 18. 254. 25. 0. 1. 1. 1. 255. 0. 0.
      25. 255. 23. 0. 0. 0. 2. 250. 1. 0. 23. 253. 252. 3. 1. 0. 127.
      231. 1. 0. 3. 89. 247. 255. 255. 254. 215. 0. 1. 0. 0. 0. 0. 0. 0.
      242. 1. 1. 0. 0. 0. 0. 1. 54. 254. 0. 0. 0. 0. 0. 0. 0. 0. 255. 8.
      0. 0. 0. 0. 0. 0. 0. 0. 0. 0. 0. 0. 0. 0. 0. 1. 1. 0. 1. 77. 3. 0.
      0. 1. 0. 2. 64. 254. 127. 127. 128. 255. 13. 1. 0. 1. 254. 97. 1.
      1. 0. 2. 254. 0. 0. 27. 255. 25. 1. 0. 0. 2. 229. 0. 0. 0. 254.
      255. 1. 2. 1. 127. 232. 1. 0. 1. 89. 247. 254. 254. 255. 215. 4.
      0. 0. 0. 1. 1. 0. 0. 242. 0. 0. 0. 0. 0. 0. 1. 54. 253. 1. 0. 0.
      0. 0. 0. 0. 3. 254. 9. 0. 0. 0. 0. 0. 0. 0. 0. 0. 0. 0. 0. 0. 0.
      0. 1. 1. 1. 1. 77. 1. 2. 1. 1. 0. 1. 64. 255. 128. 128. 128. 254.
      13. 1. 0. 18. 254. 25. 1. 1. 1. 1. 255. 0. 0. 25. 255. 26. 1. 0.
      0. 2. 250. 1. 0. 25. 255. 255. 0. 0. 1. 125. 255. 0. 0. 1. 0. 179.
      254. 255. 253. 217. 1. 0. 0. 0. 0. 0. 1. 2. 242. 0. 0. 0. 0. 0. 0.
      1. 54. 254. 2. 0. 0. 0. 0. 0. 0. 1. 254. 10. 0. 0. 0. 0. 0. 0. 0.
      0. 0. 0. 0. 0. 0. 0. 0. 1. 1. 0. 1. 39. 3. 0. 0. 0. 0. 2. 32. 254.
      190. 191. 191. 255. 7. 2. 0. 1. 254. 175. 1. 1. 1. 1. 254. 0. 0.
      26. 254. 26. 0. 1. 1. 1. 228. 2. 0. 11. 255. 150. 0. 0. 1. 69.
      255. 1. 0. 2. 45. 254. 254. 164. 174. 254. 9. 0. 0. 1. 0. 0. 1.
      45. 254. 32. 0. 0. 0. 0. 0. 0. 1. 242. 34. 0. 0. 0. 0. 0. 0. 0.
      246. 76. 0. 0. 0. 0. 0. 0. 0. 0. 0. 0. 0. 0. 0. 0. 0. 0. 0. 0. 39.
      38. 38. 0. 0. 2. 0. 1. 159. 255. 1. 1. 0. 223. 83. 1. 0. 9. 254.
      29. 1. 0. 0. 2. 246. 2. 0. 26. 255. 25. 0. 0. 0. 1. 241. 0. 0. 0.
      185. 255. 1. 0. 1. 70. 254. 0. 0. 0. 1. 237. 254. 254. 254. 253.
      0. 0. 0. 0. 0. 0. 2. 2. 235. 0. 0. 0. 0. 0. 0. 0. 1. 254. 2. 0. 0.
      0. 0. 0. 0. 0. 253. 4. 0. 0. 0. 0. 0. 0. 0. 0. 0. 0. 0. 0. 0. 0.
      0. 1. 1. 1. 1. 55. 1. 2. 1. 1. 0. 2. 64. 255. 127. 127. 127. 254.
      13. 1. 0. 1. 254. 97. 1. 1. 0. 2. 255. 2. 0. 27. 255. 25. 0. 1. 1.
      0. 229. 0. 0. 0. 255. 255. 0. 1. 2. 13. 254. 0. 0. 2. 1. 247. 254.
      254. 255. 254. 0. 0. 0. 1. 0. 0. 2. 1. 254. 1. 1. 0. 0. 0. 0. 0.
      1. 255. 2. 1. 1. 0. 0. 0. 0. 0. 253. 8. 0. 1. 2. 3. 0. 0. 0. 0. 0.
      0. 0. 0. 0. 0. 0. 1. 1. 0. 1. 77. 3. 2. 1. 1. 0. 1. 64. 255. 127.
      128. 128. 254. 13. 1. 0. 18. 254. 25. 1. 1. 0. 2. 255. 2. 0. 25.
      255. 26. 1. 0. 1. 0. 229. 0. 0. 0. 255. 254. 0. 0. 1. 14. 254. 0.
      0. 2. 1. 246. 255. 253. 253. 253. 0. 0. 0. 1. 0. 0. 2. 1. 242. 0.
      0. 0. 0. 0. 0. 0. 1. 254. 2. 0. 0. 0. 0. 0. 0. 0. 253. 8. 0. 0. 0.
      0. 0. 0. 0. 0. 0. 0. 0. 0. 0. 0. 0. 0. 0. 0. 39. 38. 38. 19. 0. 2.
      0. 1. 159. 255. 1. 1. 0. 223. 83. 0. 0. 27. 254. 29. 1. 0. 0. 2.
      254. 0. 0. 25. 254. 25. 0. 0. 0. 1. 241. 0. 0. 0. 254. 254. 0. 0.
      1. 70. 255. 0. 0. 1. 1. 238. 255. 254. 254. 253. 0. 0. 0. 0. 0. 0.
      2. 1. 234. 0. 0. 0. 0. 0. 0. 0. 1. 254. 2. 0. 0. 0. 0. 0. 0. 0.
      253. 4. 0. 0. 0. 0. 0. 0. 0. 0. 0. 0. 0. 0. 0. 0. 0. 1. 1. 1. 1.
      77. 1. 0. 0. 1. 0. 1. 64. 255. 128. 127. 128. 255. 14. 2. 0. 0.
      254. 97. 1. 1. 0. 2. 254. 0. 0. 27. 254. 25. 1. 1. 0. 1. 229. 0.
      0. 0. 255. 254. 0. 0. 1. 127. 254. 0. 0. 0. 89. 247. 255. 253.
      253. 253. 1. 0. 0. 0. 0. 0. 2. 1. 241. 0. 0. 0. 0. 0. 0. 1. 1.
      253. 1. 0. 0. 0. 0. 0. 0. 1. 253. 8. 0. 0. 0. 0. 0. 0. 0. 0. 0. 0.
      0. 0. 0. 0. 0. 1. 1. 0. 1. 77. 3. 0. 0. 1. 0. 1. 63. 255. 127.
      127. 128. 255. 13. 1. 0. 26. 254. 97. 1. 1. 1. 2. 254. 0. 0. 25.
      254. 25. 0. 1. 0. 2. 229. 0. 0. 0. 255. 254. 0. 0. 1. 14. 254. 0.
      0. 2. 1. 246. 255. 253. 253. 215. 0. 0. 0. 1. 0. 0. 2. 1. 242. 1.
      0. 0. 0. 0. 0. 0. 1. 254. 2. 0. 0. 0. 0. 0. 0. 0. 253. 8. 0. 0. 0.
      0.</data></samples>
  <responses type_id="opencv-matrix">
    <rows>100</rows>
    <cols>1</cols>
    <dt>f</dt>
    <data>
      0. 0. 0. 0. 0. 0. 0. 0. 0. 0. 1. 1. 1. 1. 1. 1. 1. 1. 1. 1. 2. 2.
      2. 2. 2. 2. 2. 2. 2. 2. 3. 3. 3. 3. 3. 3. 3. 3. 3. 3. 4. 4. 4. 4.
      4. 4. 4. 4. 4. 4. 5. 5. 5. 5. 5. 5. 5. 5. 5. 5. 6. 6. 6. 6. 6. 6.
      6. 6. 6. 6. 7. 7. 7. 7. 7. 7. 7. 7. 7. 7. 8. 8. 8. 8. 8. 8. 8. 8.
      8. 8. 9. 9. 9. 9. 9. 9. 9. 9. 9. 9.</data></responses></opencv_ml_knn>
</opencv_storage>
